digraph Tree {
node [shape=box, style="filled, rounded", color="black", fontname="helvetica"] ;
edge [fontname="helvetica"] ;
0 [label="r - ch2 <= 4.024\nentropy = 1.0\nsamples = 100.0%\nvalue = [0.5, 0.5]\nclass = quasars", fillcolor="#ffffff"] ;
1 [label="g - k <= 4.044\nentropy = 0.387\nsamples = 51.0%\nvalue = [0.924, 0.076]\nclass = non_quasar", fillcolor="#e78b49"] ;
0 -> 1 [labeldistance=2.5, labelangle=45, headlabel="True"] ;
2 [label="entropy = 0.0\nsamples = 43.5%\nvalue = [1.0, 0.0]\nclass = non_quasar", fillcolor="#e58139"] ;
1 -> 2 ;
3 [label="entropy = 1.0\nsamples = 7.5%\nvalue = [0.511, 0.489]\nclass = non_quasar", fillcolor="#fefaf6"] ;
1 -> 3 ;
4 [label="z - k <= 2.849\nentropy = 0.42\nsamples = 49.0%\nvalue = [0.085, 0.915]\nclass = quasars", fillcolor="#4ba6e7"] ;
0 -> 4 [labeldistance=2.5, labelangle=-45, headlabel="False"] ;
5 [label="entropy = 0.915\nsamples = 11.6%\nvalue = [0.33, 0.67]\nclass = quasars", fillcolor="#9acdf2"] ;
4 -> 5 ;
6 [label="g - i <= 2.403\nentropy = 0.081\nsamples = 37.4%\nvalue = [0.01, 0.99]\nclass = quasars", fillcolor="#3b9ee5"] ;
4 -> 6 ;
7 [label="entropy = 0.0\nsamples = 30.6%\nvalue = [0.0, 1.0]\nclass = quasars", fillcolor="#399de5"] ;
6 -> 7 ;
8 [label="entropy = 0.368\nsamples = 6.8%\nvalue = [0.071, 0.929]\nclass = quasars", fillcolor="#48a4e7"] ;
6 -> 8 ;
}